0.025000,-0.031100,0.022400,-0.022200,-0.023100,-0.015600,-0.020300,0.010100,-0.029600,-0.030300,0.018100,-0.016400,-0.011000,-0.020400,-0.028000,0.015100,0.001600,0.015400,-0.001500,0.017400,0.000800,-0.024400,0.000200,0.027800,-0.028500,0.017700,0.022900,0.001300,-0.002600,0.029000,-0.027400,-0.001300,-0.006100,0.011600,-0.000600,0.025600,-0.026700,-0.026200,0.006800,-0.027100,-0.014100,0.008300,0.003000,-0.010900,0.030900,0.001900,-0.002900,0.006600,-0.025100,0.012600,0.022000,0.009400,0.016800,0.013800,-0.017800,-0.003000,-0.017000,-0.010100,-0.002900,-0.005300,-0.025300,-0.004600,0.010300,-0.007900,-0.021700,0.026400,-0.027100,0.020700,-0.025400,-0.025200,0.014900,0.019500,0.003500,0.005400,0.003800,-0.010600,-0.023600,-0.009200,0.010300,0.015600,0.023000,0.013800,0.029300,0.006300,-0.009300,0.004900,-0.018000,0.009800,-0.017200,-0.024500,0.021600,-0.008300,0.016400,0.004600,0.019200,0.021600,0.029700,0.019900,0.007100,0.008900,-0.029600,0.026800,0.020600,-0.014500,-0.020000,0.012700,-0.011900,-0.010000,-0.030900,0.023100,0.004100,-0.006200,-0.022400,0.008300,-0.029300,0.015400,-0.017800,-0.005000,-0.009900,-0.008100,0.013800,0.017300,0.004200,-0.025900,-0.028000,-0.021400,0.007400,0.010900,-0.014200,0.010100,-0.000900,-0.003600,-0.014200,0.015900,-0.024100,-0.004400,-0.013500,0.011200,-0.000800,0.010400,-0.028400,-0.006500,0.006200,-0.030800,-0.012400,-0.018000,-0.022700,-0.015300,-0.010700,-0.030800,0.015400,-0.020300,-0.007500,0.012700,0.000000,0.020800,0.019100,-0.026700,0.022600,-0.028600,-0.030100,0.026300,0.022600,0.004700,0.004600,0.013100,-0.005100,-0.024100,-0.029900,-0.011000,0.018800,0.007400,0.020800,0.026200,-0.025700,0.021500,-0.016000,0.005600,0.001500,-0.006500,-0.011900,-0.010000,-0.010400,-0.020700,0.000700,-0.024100,0.000600,0.025400,-0.009400,0.014200,0.019900,0.019700,-0.016500,-0.022100,-0.018900,0.006400,0.016300,0.009700,-0.020200,0.017100,-0.000400,0.015900,0.016200,-0.003200,0.026500,0.004000,0.008500,0.007800,0.022800,0.008000,-0.021800,-0.027000,-0.003600,-0.012300,-0.014100,-0.027700,0.000500,-0.011800,-0.003000,-0.027700,0.020700,-0.026500,0.022800,0.022200,0.007200,0.000400,-0.002300,0.003400,0.018200,0.024700,-0.003100,0.019400,0.009500,-0.011200,-0.001500,-0.021800,-0.027400,-0.024800,0.024900,-0.009800,0.013400,0.000300,-0.020500,-0.015800,-0.003900,-0.003800,0.001400,-0.021300,-0.007900,-0.013600,-0.005700,-0.010100,0.006100,0.018100,0.009200,-0.022000,0.025000,-0.031100,0.022400,-0.022200,-0.023100,-0.015600,-0.020300,0.010100,-0.029600,-0.030300,0.018100,-0.016400,-0.011000,-0.020400,-0.028000,0.015100,0.001600,0.015400,-0.001500,0.017400,0.000800,-0.024400,0.000200,0.027800,-0.028500,0.017700,0.022900,0.001300,-0.002600,0.029000,-0.027400,-0.001300,-0.006100,0.011600,-0.000600,0.025600,-0.026700,-0.026200,0.006800,-0.027100,-0.014100,0.008300,0.003000,-0.010900,0.030900,0.001900,-0.002900,0.006600,-0.025100,0.012600,0.022000,0.009400,0.016800,0.013800,-0.017800,-0.003000,-0.017000,-0.010100,-0.002900,-0.005300,-0.025300,-0.004600,0.010300,-0.007900,-0.021700,0.026400,-0.027100,0.020700,-0.025400,-0.025200,0.014900,0.019500,0.003500,0.005400,0.003800,-0.010600,-0.023600,-0.009200,0.010300,0.015600,0.023000,0.013800,0.029300,0.006300,-0.009300,0.004900,-0.018000,0.009800,-0.017200,-0.024500,0.021600,-0.008300,0.016400,0.004600,0.019200,0.021600,0.029700,0.019900,0.007100,0.008900,-0.029600,0.026800,0.020600,-0.014500,-0.020000,0.012700,-0.011900,-0.010000,-0.030900,0.023100,0.004100,-0.006200,-0.022400,0.008300,-0.029300,0.015400,-0.017800,-0.005000,-0.009900,-0.008100,0.013800,0.017300,0.004200,-0.025900,-0.028000,-0.021400,0.007400,0.010900,-0.014200,0.010100,-0.000900,-0.003600,-0.014200,0.015900,-0.024100,-0.004400,-0.013500,0.011200,-0.000800,0.010400,-0.028400,-0.006500,0.006200,-0.030800,-0.012400,-0.018000,-0.022700,-0.015300,-0.010700,-0.030800,0.015400,-0.020300,-0.007500,0.012700,0.000000,0.020800,0.019100,-0.026700,0.022600,-0.028600,-0.030100,0.026300,0.022600,0.004700,0.004600,0.013100,-0.005100,-0.024100,-0.029900,-0.011000,0.018800,0.007400,0.020800,0.026200,-0.025700,0.021500,-0.016000,0.005600,0.001500,-0.006500,-0.011900,-0.010000,-0.010400,-0.020700,0.000700,-0.024100,0.000600,0.025400,-0.009400,0.014200,0.019900,0.019700,-0.016500,-0.022100,-0.018900,0.006400,0.016300,0.009700,-0.020200,0.017100,-0.000400,0.015900,0.016200,-0.003200,0.026500,0.004000,0.008500,0.007800,0.022800,0.008000,-0.021800,-0.027000,-0.003600,-0.012300,-0.014100,-0.027700,0.000500,-0.011800,-0.003000,-0.027700,0.020700,-0.026500,0.022800,0.022200,0.007200,0.000400,-0.002300,0.003400,0.018200,0.024700,-0.003100,0.019400,0.009500,-0.011200,-0.001500,-0.021800,-0.027400,-0.024800,0.024900,-0.009800,0.013400,0.000300,-0.020500,-0.015800,-0.003900,-0.003800,0.001400,-0.021300,-0.007900,-0.013600,-0.005700,-0.010100,0.006100,0.018100,0.009200,-0.022000,0.025000,-0.031100,0.022400,-0.022200,-0.023100,-0.015600,-0.020300,0.010100,-0.029600,-0.030300,0.018100,-0.016400,-0.011000,-0.020400,-0.028000,0.015100,0.001600,0.015400,-0.001500,0.017400,0.000800,-0.024400,0.000200,0.027800,-0.028500,0.017700,0.022900,0.001300,-0.002600,0.029000,-0.027400,-0.001300,-0.006100,0.011600,-0.000600,0.025600,-0.026700,-0.026200,0.006800,-0.027100,-0.014100,0.008300,0.003000,-0.010900,0.030900,0.001900,-0.002900,0.006600,-0.025100,0.012600,0.022000,0.009400,0.016800,0.013800,-0.017800,-0.003000,-0.017000,-0.010100,-0.002900,-0.005300,-0.025300,-0.004600,0.010300,-0.007900,-0.021700,0.026400,-0.027100,0.020700,-0.025400,-0.025200,0.014900,0.019500,0.003500,0.005400,0.003800,-0.010600,-0.023600,-0.009200,0.010300,0.015600,0.023000,0.013800,0.029300,0.006300,-0.009300,0.004900,-0.018000,0.009800,-0.017200,-0.024500,0.021600,-0.008300,0.016400,0.004600,0.019200,0.021600,0.029700,0.019900,0.007100,0.008900,-0.029600,0.026800,0.020600,-0.014500,-0.020000,0.012700,-0.011900,-0.010000,-0.030900,0.023100,0.004100,-0.006200,-0.022400,0.008300,-0.029300,0.015400,-0.017800,-0.005000,-0.009900,-0.008100,0.013800,0.017300,0.004200,-0.025900,-0.028000,-0.021400,0.007400,0.010900,-0.014200,0.010100,-0.000900,-0.003600,-0.014200,0.015900,-0.024100,-0.004400,-0.013500,0.011200,-0.000800,0.010400,-0.028400,-0.006500,0.006200,-0.030800,-0.012400,-0.018000,-0.022700,-0.015300,-0.010700,-0.030800,0.015400,-0.020300,-0.007500,0.012700,0.000000,0.020800,0.019100,-0.026700,0.022600,-0.028600,-0.030100,0.026300,0.022600,0.004700,0.004600,0.013100,-0.005100,-0.024100,-0.029900,-0.011000,0.018800,0.007400,0.020800,0.026200,-0.025700,0.021500,-0.016000,0.005600,0.001500,-0.006500,-0.011900,-0.010000,-0.010400,-0.020700,0.000700,-0.024100,0.000600,0.025400,-0.009400,0.014200,0.019900,0.019700,-0.016500,-0.022100,-0.018900,0.006400,0.016300,0.009700,-0.020200,0.017100,-0.000400,0.015900,0.016200,-0.003200,0.026500,0.004000,0.008500,0.007800,0.022800,0.008000,-0.021800,-0.027000,-0.003600,-0.012300,-0.014100,-0.027700,0.000500,-0.011800,-0.003000,-0.027700,0.020700,-0.026500,0.022800,0.022200,0.007200,0.000400,-0.002300,0.003400,0.018200,0.024700,-0.003100,0.019400,0.009500,-0.011200,-0.001500,-0.021800,-0.027400,-0.024800,0.024900,-0.009800,0.013400,0.000300,-0.020500,-0.015800,-0.003900,-0.003800,0.001400,-0.021300,-0.007900,-0.013600,-0.005700,-0.010100,0.006100,0.018100,0.009200,-0.022000,0.025000,-0.031100,0.022400,-0.022200,-0.023100,-0.015600,-0.020300,0.010100,-0.029600,-0.030300,0.018100,-0.016400,-0.011000,-0.020400,-0.028000,0.015100,0.001600,0.015400,-0.001500,0.017400,0.000800,-0.024400,0.000200,0.027800,-0.028500,0.017700,0.022900,0.001300,-0.002600,0.029000,-0.027400,-0.001300,-0.006100,0.011600,-0.000600,0.025600,-0.026700,-0.026200,0.006800,-0.027100,-0.014100,0.008300,0.003000,-0.010900,0.030900,0.001900,-0.002900,0.006600,-0.025100,0.012600,0.022000,0.009400,0.016800,0.013800,-0.017800,-0.003000,-0.017000,-0.010100,-0.002900,-0.005300,-0.025300,-0.004600,0.010300,-0.007900,-0.021700,0.026400,-0.027100,0.020700,-0.025400,-0.025200,0.014900,0.019500,0.003500,0.005400,0.003800,-0.010600,-0.023600,-0.009200,0.010300,0.015600,0.023000,0.013800,0.029300,0.006300,-0.009300,0.004900,-0.018000,0.009800,-0.017200,-0.024500,0.021600,-0.008300,0.016400,0.004600,0.019200,0.021600,0.029700,0.019900,0.007100,0.008900,-0.029600,0.026800,0.020600,-0.014500,-0.020000,0.012700,-0.011900,-0.010000,-0.030900,0.023100,0.004100,-0.006200,-0.022400,0.008300,-0.029300,0.015400,-0.017800,-0.005000,-0.009900,-0.008100,0.013800,0.017300,0.004200,-0.025900,-0.028000,-0.021400,0.007400,0.010900,-0.014200,0.010100,-0.000900,-0.003600,-0.014200,0.015900,-0.024100,-0.004400,-0.013500,0.011200,-0.000800,0.010400,-0.028400,-0.006500,0.006200,-0.030800,-0.012400,-0.018000,-0.022700,-0.015300,-0.010700,-0.030800,0.015400,-0.020300,-0.007500,0.012700,0.000000,0.020800,0.019100,-0.026700,0.022600,-0.028600,-0.030100,0.026300,0.022600,0.004700,0.004600,0.013100,-0.005100,-0.024100,-0.029900,-0.011000,0.018800,0.007400,0.020800,0.026200,-0.025700,0.021500,-0.016000,0.005600,0.001500,-0.006500,-0.011900,-0.010000,-0.010400,-0.020700,0.000700,-0.024100,0.000600,0.025400,-0.009400,0.014200,0.019900,0.019700,-0.016500,-0.022100,-0.018900,0.006400,0.016300,0.009700,-0.020200,0.017100,-0.000400,0.015900,0.016200,-0.003200,0.026500,0.004000,0.008500,0.007800,0.022800,0.008000,-0.021800,-0.027000,-0.003600,-0.012300,-0.014100,-0.027700,0.000500,-0.011800,-0.003000,-0.027700,0.020700,-0.026500,0.022800,0.022200,0.007200,0.000400,-0.002300,0.003400,0.018200,0.024700,-0.003100,0.019400,0.009500,-0.011200,-0.001500,-0.021800,-0.027400,-0.024800,0.024900,-0.009800,0.013400,0.000300,-0.020500,-0.015800,-0.003900,-0.003800,0.001400,-0.021300,-0.007900,-0.013600,-0.005700,-0.010100,0.006100,0.018100,0.009200,-0.022000