0.025,-0.0311,0.0224,-0.0222,-0.0231,-0.0156,-0.0203,0.0101,-0.0296,-0.0303,0.0181,-0.0164,-0.011,-0.0204,-0.028,0.0151,0.0016,0.0154,-0.0015,0.0174,0.0008,-0.0244,0.0002,0.0278,-0.0285,0.0177,0.0229,0.0013,-0.0026,0.029,-0.0274,-0.0013,-0.0061,0.0116,-0.0006,0.0256,-0.0267,-0.0262,0.0068,-0.0271,-0.0141,0.0083,0.003,-0.0109,0.0309,0.0019,-0.0029,0.0066,-0.0251,0.0126,0.022,0.0094,0.0168,0.0138,-0.0178,-0.003,-0.017,-0.0101,-0.0029,-0.0053,-0.0253,-0.0046,0.0103,-0.0079,-0.0217,0.0264,-0.0271,0.0207,-0.0254,-0.0252,0.0149,0.0195,0.0035,0.0054,0.0038,-0.0106,-0.0236,-0.0092,0.0103,0.0156,0.023,0.0138,0.0293,0.0063,-0.0093,0.0049,-0.018,0.0098,-0.0172,-0.0245,0.0216,-0.0083,0.0164,0.0046,0.0192,0.0216,0.0297,0.0199,0.0071,0.0089,-0.0296,0.0268,0.0206,-0.0145,-0.02,0.0127,-0.0119,-0.01,-0.0309,0.0231,0.0041,-0.0062,-0.0224,0.0083,-0.0293,0.0154,-0.0178,-0.005,-0.0099,-0.0081,0.0138,0.0173,0.0042,-0.0259,-0.028,-0.0214,0.0074,0.0109,-0.0142,0.0101,-0.0009,-0.0036,-0.0142,0.0159,-0.0241,-0.0044,-0.0135,0.0112,-0.0008,0.0104,-0.0284,-0.0065,0.0062,-0.0308,-0.0124,-0.018,-0.0227,-0.0153,-0.0107,-0.0308,0.0154,-0.0203,-0.0075,0.0127,0,0.0208,0.0191,-0.0267,0.0226,-0.0286,-0.0301,0.0263,0.0226,0.0047,0.0046,0.0131,-0.0051,-0.0241,-0.0299,-0.011,0.0188,0.0074,0.0208,0.0262,-0.0257,0.0215,-0.016,0.0056,0.0015,-0.0065,-0.0119,-0.01,-0.0104,-0.0207,0.0007,-0.0241,0.0006,0.0254,-0.0094,0.0142,0.0199,0.0197,-0.0165,-0.0221,-0.0189,0.0064,0.0163,0.0097,-0.0202,0.0171,-0.0004,0.0159,0.0162,-0.0032,0.0265,0.004,0.0085,0.0078,0.0228,0.008,-0.0218,-0.027,-0.0036,-0.0123,-0.0141,-0.0277,0.0005,-0.0118,-0.003,-0.0277,0.0207,-0.0265,0.0228,0.0222,0.0072,0.0004,-0.0023,0.0034,0.0182,0.0247,-0.0031,0.0194,0.0095,-0.0112,-0.0015,-0.0218,-0.0274,-0.0248,0.0249,-0.0098,0.0134,0.0003,-0.0205,-0.0158,-0.0039,-0.0038,0.0014,-0.0213,-0.0079,-0.0136,-0.0057,-0.0101,0.0061,0.0181,0.0092,-0.022,0.025,-0.0311,0.0224,-0.0222,-0.0231,-0.0156,-0.0203,0.0101,-0.0296,-0.0303,0.0181,-0.0164,-0.011,-0.0204,-0.028,0.0151,0.0016,0.0154,-0.0015,0.0174,0.0008,-0.0244,0.0002,0.0278,-0.0285,0.0177,0.0229,0.0013,-0.0026,0.029,-0.0274,-0.0013,-0.0061,0.0116,-0.0006,0.0256,-0.0267,-0.0262,0.0068,-0.0271,-0.0141,0.0083,0.003,-0.0109,0.0309,0.0019,-0.0029,0.0066,-0.0251,0.0126,0.022,0.0094,0.0168,0.0138,-0.0178,-0.003,-0.017,-0.0101,-0.0029,-0.0053,-0.0253,-0.0046,0.0103,-0.0079,-0.0217,0.0264,-0.0271,0.0207,-0.0254,-0.0252,0.0149,0.0195,0.0035,0.0054,0.0038,-0.0106,-0.0236,-0.0092,0.0103,0.0156,0.023,0.0138,0.0293,0.0063,-0.0093,0.0049,-0.018,0.0098,-0.0172,-0.0245,0.0216,-0.0083,0.0164,0.0046,0.0192,0.0216,0.0297,0.0199,0.0071,0.0089,-0.0296,0.0268,0.0206,-0.0145,-0.02,0.0127,-0.0119,-0.01,-0.0309,0.0231,0.0041,-0.0062,-0.0224,0.0083,-0.0293,0.0154,-0.0178,-0.005,-0.0099,-0.0081,0.0138,0.0173,0.0042,-0.0259,-0.028,-0.0214,0.0074,0.0109,-0.0142,0.0101,-0.0009,-0.0036,-0.0142,0.0159,-0.0241,-0.0044,-0.0135,0.0112,-0.0008,0.0104,-0.0284,-0.0065,0.0062,-0.0308,-0.0124,-0.018,-0.0227,-0.0153,-0.0107,-0.0308,0.0154,-0.0203,-0.0075,0.0127,0,0.0208,0.0191,-0.0267,0.0226,-0.0286,-0.0301,0.0263,0.0226,0.0047,0.0046,0.0131,-0.0051,-0.0241,-0.0299,-0.011,0.0188,0.0074,0.0208,0.0262,-0.0257,0.0215,-0.016,0.0056,0.0015,-0.0065,-0.0119,-0.01,-0.0104,-0.0207,0.0007,-0.0241,0.0006,0.0254,-0.0094,0.0142,0.0199,0.0197,-0.0165,-0.0221,-0.0189,0.0064,0.0163,0.0097,-0.0202,0.0171,-0.0004,0.0159,0.0162,-0.0032,0.0265,0.004,0.0085,0.0078,0.0228,0.008,-0.0218,-0.027,-0.0036,-0.0123,-0.0141,-0.0277,0.0005,-0.0118,-0.003,-0.0277,0.0207,-0.0265,0.0228,0.0222,0.0072,0.0004,-0.0023,0.0034,0.0182,0.0247,-0.0031,0.0194,0.0095,-0.0112,-0.0015,-0.0218,-0.0274,-0.0248,0.0249,-0.0098,0.0134,0.0003,-0.0205,-0.0158,-0.0039,-0.0038,0.0014,-0.0213,-0.0079,-0.0136,-0.0057,-0.0101,0.0061,0.0181,0.0092,-0.022,0.025,-0.0311,0.0224,-0.0222,-0.0231,-0.0156,-0.0203,0.0101,-0.0296,-0.0303,0.0181,-0.0164,-0.011,-0.0204,-0.028,0.0151,0.0016,0.0154,-0.0015,0.0174,0.0008,-0.0244,0.0002,0.0278,-0.0285,0.0177,0.0229,0.0013,-0.0026,0.029,-0.0274,-0.0013,-0.0061,0.0116,-0.0006,0.0256,-0.0267,-0.0262,0.0068,-0.0271,-0.0141,0.0083,0.003,-0.0109,0.0309,0.0019,-0.0029,0.0066,-0.0251,0.0126,0.022,0.0094,0.0168,0.0138,-0.0178,-0.003,-0.017,-0.0101,-0.0029,-0.0053,-0.0253,-0.0046,0.0103,-0.0079,-0.0217,0.0264,-0.0271,0.0207,-0.0254,-0.0252,0.0149,0.0195,0.0035,0.0054,0.0038,-0.0106,-0.0236,-0.0092,0.0103,0.0156,0.023,0.0138,0.0293,0.0063,-0.0093,0.0049,-0.018,0.0098,-0.0172,-0.0245,0.0216,-0.0083,0.0164,0.0046,0.0192,0.0216,0.0297,0.0199,0.0071,0.0089,-0.0296,0.0268,0.0206,-0.0145,-0.02,0.0127,-0.0119,-0.01,-0.0309,0.0231,0.0041,-0.0062,-0.0224,0.0083,-0.0293,0.0154,-0.0178,-0.005,-0.0099,-0.0081,0.0138,0.0173,0.0042,-0.0259,-0.028,-0.0214,0.0074,0.0109,-0.0142,0.0101,-0.0009,-0.0036,-0.0142,0.0159,-0.0241,-0.0044,-0.0135,0.0112,-0.0008,0.0104,-0.0284,-0.0065,0.0062,-0.0308,-0.0124,-0.018,-0.0227,-0.0153,-0.0107,-0.0308,0.0154,-0.0203,-0.0075,0.0127,0,0.0208,0.0191,-0.0267,0.0226,-0.0286,-0.0301,0.0263,0.0226,0.0047,0.0046,0.0131,-0.0051,-0.0241,-0.0299,-0.011,0.0188,0.0074,0.0208,0.0262,-0.0257,0.0215,-0.016,0.0056,0.0015,-0.0065,-0.0119,-0.01,-0.0104,-0.0207,0.0007,-0.0241,0.0006,0.0254,-0.0094,0.0142,0.0199,0.0197,-0.0165,-0.0221,-0.0189,0.0064,0.0163,0.0097,-0.0202,0.0171,-0.0004,0.0159,0.0162,-0.0032,0.0265,0.004,0.0085,0.0078,0.0228,0.008,-0.0218,-0.027,-0.0036,-0.0123,-0.0141,-0.0277,0.0005,-0.0118,-0.003,-0.0277,0.0207,-0.0265,0.0228,0.0222,0.0072,0.0004,-0.0023,0.0034,0.0182,0.0247,-0.0031,0.0194,0.0095,-0.0112,-0.0015,-0.0218,-0.0274,-0.0248,0.0249,-0.0098,0.0134,0.0003,-0.0205,-0.0158,-0.0039,-0.0038,0.0014,-0.0213,-0.0079,-0.0136,-0.0057,-0.0101,0.0061,0.0181,0.0092,-0.022,0.025,-0.0311,0.0224,-0.0222,-0.0231,-0.0156,-0.0203,0.0101,-0.0296,-0.0303,0.0181,-0.0164,-0.011,-0.0204,-0.028,0.0151,0.0016,0.0154,-0.0015,0.0174,0.0008,-0.0244,0.0002,0.0278,-0.0285,0.0177,0.0229,0.0013,-0.0026,0.029,-0.0274,-0.0013,-0.0061,0.0116,-0.0006,0.0256,-0.0267,-0.0262,0.0068,-0.0271,-0.0141,0.0083,0.003,-0.0109,0.0309,0.0019,-0.0029,0.0066,-0.0251,0.0126,0.022,0.0094,0.0168,0.0138,-0.0178,-0.003,-0.017,-0.0101,-0.0029,-0.0053,-0.0253,-0.0046,0.0103,-0.0079,-0.0217,0.0264,-0.0271,0.0207,-0.0254,-0.0252,0.0149,0.0195,0.0035,0.0054,0.0038,-0.0106,-0.0236,-0.0092,0.0103,0.0156,0.023,0.0138,0.0293,0.0063,-0.0093,0.0049,-0.018,0.0098,-0.0172,-0.0245,0.0216,-0.0083,0.0164,0.0046,0.0192,0.0216,0.0297,0.0199,0.0071,0.0089,-0.0296,0.0268,0.0206,-0.0145,-0.02,0.0127,-0.0119,-0.01,-0.0309,0.0231,0.0041,-0.0062,-0.0224,0.0083,-0.0293,0.0154,-0.0178,-0.005,-0.0099,-0.0081,0.0138,0.0173,0.0042,-0.0259,-0.028,-0.0214,0.0074,0.0109,-0.0142,0.0101,-0.0009,-0.0036,-0.0142,0.0159,-0.0241,-0.0044,-0.0135,0.0112,-0.0008,0.0104,-0.0284,-0.0065,0.0062,-0.0308,-0.0124,-0.018,-0.0227,-0.0153,-0.0107,-0.0308,0.0154,-0.0203,-0.0075,0.0127,0,0.0208,0.0191,-0.0267,0.0226,-0.0286,-0.0301,0.0263,0.0226,0.0047,0.0046,0.0131,-0.0051,-0.0241,-0.0299,-0.011,0.0188,0.0074,0.0208,0.0262,-0.0257,0.0215,-0.016,0.0056,0.0015,-0.0065,-0.0119,-0.01,-0.0104,-0.0207,0.0007,-0.0241,0.0006,0.0254,-0.0094,0.0142,0.0199,0.0197,-0.0165,-0.0221,-0.0189,0.0064,0.0163,0.0097,-0.0202,0.0171,-0.0004,0.0159,0.0162,-0.0032,0.0265,0.004,0.0085,0.0078,0.0228,0.008,-0.0218,-0.027,-0.0036,-0.0123,-0.0141,-0.0277,0.0005,-0.0118,-0.003,-0.0277,0.0207,-0.0265,0.0228,0.0222,0.0072,0.0004,-0.0023,0.0034,0.0182,0.0247,-0.0031,0.0194,0.0095,-0.0112,-0.0015,-0.0218,-0.0274,-0.0248,0.0249,-0.0098,0.0134,0.0003,-0.0205,-0.0158,-0.0039,-0.0038,0.0014,-0.0213,-0.0079,-0.0136,-0.0057,-0.0101,0.0061,0.0181,0.0092,-0.022