0.0972007,-0.10168,0.19944,-0.19944,0.0972007,-0.10168,0.19944,-0.19944,0.0972007,-0.10168,0.19944,-0.19944,0.0972007,-0.10168,0.19944,-0.19944,0.0972007,-0.10168,0.19944,-0.19944,0.0972007,-0.10168,0.19944,-0.19944,0.0972007,-0.10168,0.19944,-0.19944,0.0972007,-0.10168,0.19944,-0.19944,0.00326427,0.00195856,0.000652854,-0.000652854,0.00326427,0.00195856,0.000652854,-0.000652854,0.00326427,0.00195856,0.000652854,-0.000652854,0.00326427,0.00195856,0.000652854,-0.000652854,0.00326427,0.00195856,0.000652854,-0.000652854,0.00326427,0.00195856,0.000652854,-0.000652854,0.00326427,0.00195856,0.000652854,-0.000652854,0.00326427,0.00195856,0.000652854,-0.000652854,0.00323057,0.00193834,0.000646114,-0.000646114,0.00323057,0.00193834,0.000646114,-0.000646114,0.00323057,0.00193834,0.000646114,-0.000646114,0.00323057,0.00193834,0.000646114,-0.000646114,0.00323057,0.00193834,0.000646114,-0.000646114,0.00323057,0.00193834,0.000646114,-0.000646114,0.00323057,0.00193834,0.000646114,-0.000646114,0.00323057,0.00193834,0.000646114,-0.000646114,0.00324741,0.00194845,0.000649483,-0.000649483,0.00324741,0.00194845,0.000649483,-0.000649483,0.00324741,0.00194845,0.000649483,-0.000649483,0.00324741,0.00194845,0.000649483,-0.000649483,0.00324741,0.00194845,0.000649483,-0.000649483,0.00324741,0.00194845,0.000649483,-0.000649483,0.00324741,0.00194845,0.000649483,-0.000649483,0.00324741,0.00194845,0.000649483,-0.000649483,-0.00173573,-0.00104144,-0.000347146,0.000347146,-0.00173573,-0.00104144,-0.000347146,0.000347146,-0.00173573,-0.00104144,-0.000347146,0.000347146,-0.00173573,-0.00104144,-0.000347146,0.000347146,-0.00173573,-0.00104144,-0.000347146,0.000347146,-0.00173573,-0.00104144,-0.000347146,0.000347146,-0.00173573,-0.00104144,-0.000347146,0.000347146,-0.00173573,-0.00104144,-0.000347146,0.000347146,-0.00173573,-0.00104144,-0.000347146,0.000347146,-0.00173573,-0.00104144,-0.000347146,0.000347146,-0.00173573,-0.00104144,-0.000347146,0.000347146,-0.00173573,-0.00104144,-0.000347146,0.000347146,-0.00173573,-0.00104144,-0.000347146,0.000347146,-0.00173573,-0.00104144,-0.000347146,0.000347146,-0.00173573,-0.00104144,-0.000347146,0.000347146,-0.00173573,-0.00104144,-0.000347146,0.000347146,-0.00173573,-0.00104144,-0.000347146,0.000347146,-0.00173573,-0.00104144,-0.000347146,0.000347146,-0.00173573,-0.00104144,-0.000347146,0.000347146,-0.00173573,-0.00104144,-0.000347146,0.000347146,-0.00173573,-0.00104144,-0.000347146,0.000347146,-0.00173573,-0.00104144,-0.000347146,0.000347146,-0.00173573,-0.00104144,-0.000347146,0.000347146,-0.00173573,-0.00104144,-0.000347146,0.000347146,-0.00173573,-0.00104144,-0.000347146,0.000347146,-0.00173573,-0.00104144,-0.000347146,0.000347146,-0.00173573,-0.00104144,-0.000347146,0.000347146,-0.00173573,-0.00104144,-0.000347146,0.000347146,-0.00173573,-0.00104144,-0.000347146,0.000347146,-0.00173573,-0.00104144,-0.000347146,0.000347146,-0.00173573,-0.00104144,-0.000347146,0.000347146,-0.00173573,-0.00104144,-0.000347146,0.000347146